<?xml version="1.0"?>
<opencv_storage>
<cascade>
  <stageType>BOOST</stageType>
  <featureType>LBP</featureType>
  <height>24</height>
  <width>24</width>
  <stageParams>
    <boostType>GAB</boostType>
    <minHitRate>9.9500000476837158e-01</minHitRate>
    <maxFalseAlarm>5.0000000000000000e-01</maxFalseAlarm>
    <weightTrimRate>9.4999999999999996e-01</weightTrimRate>
    <maxDepth>1</maxDepth>
    <maxWeakCount>100</maxWeakCount></stageParams>
  <featureParams>
    <maxCatCount>256</maxCatCount>
    <featSize>1</featSize></featureParams>
  <stageNum>10</stageNum>
  <stages>
    <!-- stage 0 -->
    <_>
      <maxWeakCount>2</maxWeakCount>
      <stageThreshold>-1.6591016948223114e-01</stageThreshold>
      <weakClassifiers>
        <_>
          <internalNodes>
            0 -1 18 1370617294 -707542063 286380529 -237912045
            -1002320948 -1381447490 -998012678 -3585</internalNodes>
          <leafValues>
            -9.4395142793655396e-01 8.3066171407699585e-01</leafValues></_>
        <_>
          <internalNodes>
            0 -1 14 -37169936 -183451504 -44230189 -38538839 -134030152
            -939488128 -74854481 -1048577</internalNodes>
          <leafValues>
            -9.3905663490295410e-01 7.7804124355316162e-01</leafValues></_></weakClassifiers></_>
    <!-- stage 1 -->
    <_>
      <maxWeakCount>2</maxWeakCount>
      <stageThreshold>-1.7930148541927338e-01</stageThreshold>
      <weakClassifiers>
        <_>
          <internalNodes>
            0 -1 12 -237895686 -170795258 -214712069 -235685357
            -169740289 -168634721 -1276907541 -201856069</internalNodes>
          <leafValues>
            -9.0462285280227661e-01 7.3799127340316772e-01</leafValues></_>
        <_>
          <internalNodes>
            0 -1 26 -852484 2033399063 -364317480 -1224492630 -376966913
            -115629105 -204537606 -4197633</internalNodes>
          <leafValues>
            -8.8178819417953491e-01 7.2532141208648682e-01</leafValues></_></weakClassifiers></_>
    <!-- stage 2 -->
    <_>
      <maxWeakCount>3</maxWeakCount>
      <stageThreshold>-9.4889551401138306e-01</stageThreshold>
      <weakClassifiers>
        <_>
          <internalNodes>
            0 -1 16 -596574732 -44555 -85401729 -543982832 -342953985
            -33948694 -1128993281 -33555733</internalNodes>
          <leafValues>
            -7.9893714189529419e-01 7.7892917394638062e-01</leafValues></_>
        <_>
          <internalNodes>
            0 -1 20 -2049 -567214213 -34374658 -983048 -350227083
            -864751823 -117637892 -34209793</internalNodes>
          <leafValues>
            -8.1599694490432739e-01 7.3011010885238647e-01</leafValues></_>
        <_>
          <internalNodes>
            0 -1 29 -83906814 -11031721 -23629312 -92887198 -898954998
            -1897926593 -923809026 -336068689</internalNodes>
          <leafValues>
            -8.8006848096847534e-01 6.7493015527725220e-01</leafValues></_></weakClassifiers></_>
    <!-- stage 3 -->
    <_>
      <maxWeakCount>3</maxWeakCount>
      <stageThreshold>-9.2219662666320801e-01</stageThreshold>
      <weakClassifiers>
        <_>
          <internalNodes>
            0 -1 2 -359888728 -145423783 -1852694529 -243698983
            -259683393 -262729 -85590289 -773</internalNodes>
          <leafValues>
            -8.0939096212387085e-01 7.1853077411651611e-01</leafValues></_>
        <_>
          <internalNodes>
            0 -1 4 -18157058 -142470654 -541969989 -581070 -734137345
            -5527877 -776734757 -1312837</internalNodes>
          <leafValues>
            -7.7461236715316772e-01 7.4370050430297852e-01</leafValues></_>
        <_>
          <internalNodes>
            0 -1 9 -788535062 -639639569 821558397 -100797517 -590641745
            -571814165 13582479 -10337</internalNodes>
          <leafValues>
            -8.4973049163818359e-01 6.6180676221847534e-01</leafValues></_></weakClassifiers></_>
    <!-- stage 4 -->
    <_>
      <maxWeakCount>3</maxWeakCount>
      <stageThreshold>-8.3491826057434082e-01</stageThreshold>
      <weakClassifiers>
        <_>
          <internalNodes>
            0 -1 25 -67374085 -76414983 294847376 1945223159 -67392582
            -76284075 1006615466 -33</internalNodes>
          <leafValues>
            -7.2252863645553589e-01 7.6815515756607056e-01</leafValues></_>
        <_>
          <internalNodes>
            0 -1 19 -65539 -12718219 -1253444 -214086 -285672449
            -1133201547 -822215716 -864682122</internalNodes>
          <leafValues>
            -8.3415913581848145e-01 6.3553905487060547e-01</leafValues></_>
        <_>
          <internalNodes>
            0 -1 8 -167842058 -203775737 -1145974945 -71359985 -35930625
            574324979 -269489681 -81</internalNodes>
          <leafValues>
            -7.3779129981994629e-01 7.2176951169967651e-01</leafValues></_></weakClassifiers></_>
    <!-- stage 5 -->
    <_>
      <maxWeakCount>3</maxWeakCount>
      <stageThreshold>-7.6257395744323730e-01</stageThreshold>
      <weakClassifiers>
        <_>
          <internalNodes>
            0 -1 3 -650117121 -65538 -16388 -327942 -65540 -42532867
            -516 -33554433</internalNodes>
          <leafValues>
            -6.5788435935974121e-01 8.2373213768005371e-01</leafValues></_>
        <_>
          <internalNodes>
            0 -1 13 -170658340 -67436577 -34996548 -1280066822 230654463
            -3432961 1441746638 -67118337</internalNodes>
          <leafValues>
            -8.4052222967147827e-01 6.6770893335342407e-01</leafValues></_>
        <_>
          <internalNodes>
            0 -1 24 -4194381 -1347747910 -13 -1 -167774797 -1886392405
            -503319301 -1920205637</internalNodes>
          <leafValues>
            -7.2588437795639038e-01 7.3583269119262695e-01</leafValues></_></weakClassifiers></_>
    <!-- stage 6 -->
    <_>
      <maxWeakCount>4</maxWeakCount>
      <stageThreshold>-3.5584840178489685e-01</stageThreshold>
      <weakClassifiers>
        <_>
          <internalNodes>
            0 -1 28 -213651518 -75894869 -613025029 -68429261 -212664150
            -10781661 -76026885 -75497669</internalNodes>
          <leafValues>
            -7.8285712003707886e-01 6.6451090574264526e-01</leafValues></_>
        <_>
          <internalNodes>
            0 -1 21 -593952780 -4931596 1573838845 -3339 -1124139009
            -1125393473 -860292865 -13512455</internalNodes>
          <leafValues>
            -7.8945380449295044e-01 6.4465796947479248e-01</leafValues></_>
        <_>
          <internalNodes>
            0 -1 11 -253038354 -47187969 -268436226 -14811137 28025775
            -1347684437 -1477444354 -12582981</internalNodes>
          <leafValues>
            -8.9556032419204712e-01 5.7842403650283813e-01</leafValues></_>
        <_>
          <internalNodes>
            0 -1 23 1191175983 1444810543 -271056897 841186895
            -138412609 -131075 -19931205 -1049633</internalNodes>
          <leafValues>
            -7.4461185932159424e-01 6.7791110277175903e-01</leafValues></_></weakClassifiers></_>
    <!-- stage 7 -->
    <_>
      <maxWeakCount>3</maxWeakCount>
      <stageThreshold>-8.3435267210006714e-01</stageThreshold>
      <weakClassifiers>
        <_>
          <internalNodes>
            0 -1 5 -771556110 -753765389 -2957313 -4770977 -2624009
            -2097737 -1073744641 -2361365</internalNodes>
          <leafValues>
            -7.5387418270111084e-01 6.9495797157287598e-01</leafValues></_>
        <_>
          <internalNodes>
            0 -1 7 -268454093 937375511 -302548685 2147444531
            -1460752461 -1394366157 -2031180909 -957356253</internalNodes>
          <leafValues>
            -7.2740256786346436e-01 6.8612831830978394e-01</leafValues></_>
        <_>
          <internalNodes>
            0 -1 27 -67653 -67970568 -6320453 1035408447 -1078264321
            -1087186224 970827952 -1115816769</internalNodes>
          <leafValues>
            -7.5395148992538452e-01 6.4692407846450806e-01</leafValues></_></weakClassifiers></_>
    <!-- stage 8 -->
    <_>
      <maxWeakCount>4</maxWeakCount>
      <stageThreshold>-3.5083904862403870e-01</stageThreshold>
      <weakClassifiers>
        <_>
          <internalNodes>
            0 -1 30 -187 -268435457 -1073746053 -65 -1052915 -33554433
            -36975 -268435663</internalNodes>
          <leafValues>
            -6.9296377897262573e-01 7.2902649641036987e-01</leafValues></_>
        <_>
          <internalNodes>
            0 -1 22 -11536956 1594700549 -1647448450 1597730815 -4205105
            -67119409 -16789798 -33</internalNodes>
          <leafValues>
            -8.1608766317367554e-01 6.1032009124755859e-01</leafValues></_>
        <_>
          <internalNodes>
            0 -1 15 -71372818 -2557111 -139910 -2359429 -842667089
            -51340036 -271323137 -34343681</internalNodes>
          <leafValues>
            -7.9083514213562012e-01 5.9507918357849121e-01</leafValues></_>
        <_>
          <internalNodes>
            0 -1 6 -134229197 -67132637 1997879041 1435760395 -274905089
            -270618629 1205684123 1476388767</internalNodes>
          <leafValues>
            -8.5306066274642944e-01 5.6313312053680420e-01</leafValues></_></weakClassifiers></_>
    <!-- stage 9 -->
    <_>
      <maxWeakCount>4</maxWeakCount>
      <stageThreshold>-3.2891556620597839e-01</stageThreshold>
      <weakClassifiers>
        <_>
          <internalNodes>
            0 -1 0 -1397819681 -958727534 -534848236 -77413806
            -859583925 -340534219 -18615841 -83964161</internalNodes>
          <leafValues>
            -7.5126206874847412e-01 6.8350732326507568e-01</leafValues></_>
        <_>
          <internalNodes>
            0 -1 17 -178520582 -420619 -1727854501 -877425989 -102804037
            -84157429 1023631355 -552874741</internalNodes>
          <leafValues>
            -7.9935151338577271e-01 6.0198467969894409e-01</leafValues></_>
        <_>
          <internalNodes>
            0 -1 1 -1367063040 -1892618908 -1097816577 -3105350
            -119742657 -16203863 -288232961 -67830037</internalNodes>
          <leafValues>
            -8.9132046699523926e-01 5.2823024988174438e-01</leafValues></_>
        <_>
          <internalNodes>
            0 -1 10 -54006041 -218534145 -558046497 -13470380 -112589714
            -60091284 -57352469 -12912353</internalNodes>
          <leafValues>
            -7.0786851644515991e-01 7.1739298105239868e-01</leafValues></_></weakClassifiers></_></stages>
  <features>
    <_>
      <rect>
        0 0 1 8</rect></_>
    <_>
      <rect>
        0 0 8 1</rect></_>
    <_>
      <rect>
        0 0 8 2</rect></_>
    <_>
      <rect>
        0 21 8 1</rect></_>
    <_>
      <rect>
        1 3 4 2</rect></_>
    <_>
      <rect>
        2 0 5 3</rect></_>
    <_>
      <rect>
        3 6 2 3</rect></_>
    <_>
      <rect>
        5 6 1 3</rect></_>
    <_>
      <rect>
        5 8 2 3</rect></_>
    <_>
      <rect>
        5 12 3 2</rect></_>
    <_>
      <rect>
        5 18 2 1</rect></_>
    <_>
      <rect>
        6 6 3 2</rect></_>
    <_>
      <rect>
        6 6 3 3</rect></_>
    <_>
      <rect>
        6 10 2 3</rect></_>
    <_>
      <rect>
        6 12 4 3</rect></_>
    <_>
      <rect>
        7 14 3 2</rect></_>
    <_>
      <rect>
        7 18 3 2</rect></_>
    <_>
      <rect>
        8 14 3 3</rect></_>
    <_>
      <rect>
        9 7 3 2</rect></_>
    <_>
      <rect>
        9 8 2 2</rect></_>
    <_>
      <rect>
        9 10 2 1</rect></_>
    <_>
      <rect>
        9 18 3 2</rect></_>
    <_>
      <rect>
        10 6 3 2</rect></_>
    <_>
      <rect>
        11 13 2 1</rect></_>
    <_>
      <rect>
        11 18 3 1</rect></_>
    <_>
      <rect>
        12 5 4 2</rect></_>
    <_>
      <rect>
        12 10 2 3</rect></_>
    <_>
      <rect>
        14 11 2 4</rect></_>
    <_>
      <rect>
        15 3 3 4</rect></_>
    <_>
      <rect>
        18 6 2 3</rect></_>
    <_>
      <rect>
        21 4 1 6</rect></_></features></cascade>
</opencv_storage>
