<?xml version="1.0"?>
<opencv_storage>
<stage8>
  <maxWeakCount>4</maxWeakCount>
  <stageThreshold>-3.5083904862403870e-01</stageThreshold>
  <weakClassifiers>
    <_>
      <internalNodes>
        0 -1 8406 -187 -268435457 -1073746053 -65 -1052915 -33554433
        -36975 -268435663</internalNodes>
      <leafValues>
        -6.9296377897262573e-01 7.2902649641036987e-01</leafValues></_>
    <_>
      <internalNodes>
        0 -1 5881 -11536956 1594700549 -1647448450 1597730815 -4205105
        -67119409 -16789798 -33</internalNodes>
      <leafValues>
        -8.1608766317367554e-01 6.1032009124755859e-01</leafValues></_>
    <_>
      <internalNodes>
        0 -1 4716 -71372818 -2557111 -139910 -2359429 -842667089
        -51340036 -271323137 -34343681</internalNodes>
      <leafValues>
        -7.9083514213562012e-01 5.9507918357849121e-01</leafValues></_>
    <_>
      <internalNodes>
        0 -1 2319 -134229197 -67132637 1997879041 1435760395 -274905089
        -270618629 1205684123 1476388767</internalNodes>
      <leafValues>
        -8.5306066274642944e-01 5.6313312053680420e-01</leafValues></_></weakClassifiers></stage8>
</opencv_storage>
